digraph Tree {
node [shape=box, style="filled, rounded", color="black", fontname=helvetica] ;
edge [fontname=helvetica] ;
0 [label="petal width (cm) <= 0.75\ngini = 0.65\nsamples = 93\nvalue = [41, 64, 45]\nclass = versicolor", fillcolor="#dbfae8"] ;
1 [label="gini = 0.0\nsamples = 29\nvalue = [41, 0, 0]\nclass = setosa", fillcolor="#e58139"] ;
0 -> 1 [labeldistance=2.5, labelangle=45, headlabel="True"] ;
2 [label="petal width (cm) <= 1.65\ngini = 0.48\nsamples = 64\nvalue = [0, 64, 45]\nclass = versicolor", fillcolor="#c4f7da"] ;
0 -> 2 [labeldistance=2.5, labelangle=-45, headlabel="False"] ;
3 [label="petal length (cm) <= 4.95\ngini = 0.14\nsamples = 38\nvalue = [0, 63, 5]\nclass = versicolor", fillcolor="#49e78b"] ;
2 -> 3 ;
4 [label="gini = 0.0\nsamples = 34\nvalue = [0, 61, 0]\nclass = versicolor", fillcolor="#39e581"] ;
3 -> 4 ;
5 [label="sepal length (cm) <= 6.15\ngini = 0.41\nsamples = 4\nvalue = [0, 2, 5]\nclass = virginica", fillcolor="#b388ef"] ;
3 -> 5 ;
6 [label="petal width (cm) <= 1.55\ngini = 0.44\nsamples = 2\nvalue = [0, 2, 1]\nclass = versicolor", fillcolor="#9cf2c0"] ;
5 -> 6 ;
7 [label="gini = 0.0\nsamples = 1\nvalue = [0, 0, 1]\nclass = virginica", fillcolor="#8139e5"] ;
6 -> 7 ;
8 [label="gini = 0.0\nsamples = 1\nvalue = [0, 2, 0]\nclass = versicolor", fillcolor="#39e581"] ;
6 -> 8 ;
9 [label="gini = 0.0\nsamples = 2\nvalue = [0, 0, 4]\nclass = virginica", fillcolor="#8139e5"] ;
5 -> 9 ;
10 [label="sepal length (cm) <= 5.95\ngini = 0.05\nsamples = 26\nvalue = [0, 1, 40]\nclass = virginica", fillcolor="#843ee6"] ;
2 -> 10 ;
11 [label="petal width (cm) <= 1.75\ngini = 0.2\nsamples = 4\nvalue = [0, 1, 8]\nclass = virginica", fillcolor="#9152e8"] ;
10 -> 11 ;
12 [label="gini = 0.0\nsamples = 1\nvalue = [0, 0, 4]\nclass = virginica", fillcolor="#8139e5"] ;
11 -> 12 ;
13 [label="sepal width (cm) <= 3.0\ngini = 0.32\nsamples = 3\nvalue = [0, 1, 4]\nclass = virginica", fillcolor="#a06aec"] ;
11 -> 13 ;
14 [label="gini = 0.0\nsamples = 2\nvalue = [0, 0, 4]\nclass = virginica", fillcolor="#8139e5"] ;
13 -> 14 ;
15 [label="gini = 0.0\nsamples = 1\nvalue = [0, 1, 0]\nclass = versicolor", fillcolor="#39e581"] ;
13 -> 15 ;
16 [label="gini = 0.0\nsamples = 22\nvalue = [0, 0, 32]\nclass = virginica", fillcolor="#8139e5"] ;
10 -> 16 ;
}